digraph Tree {
node [shape=box, fontname="helvetica"] ;
edge [fontname="helvetica"] ;
0 [label="x[42] <= 7.5\nentropy = 3.322\nsamples = 1437\nvalue = [143, 146, 142, 146, 144, 145, 144, 143, 141, 143]"] ;
1 [label="x[43] <= 2.5\nentropy = 2.889\nsamples = 779\nvalue = [4, 98, 94, 135, 41, 136, 0, 100, 29, 142]"] ;
0 -> 1 [labeldistance=2.5, labelangle=45, headlabel="True"] ;
2 [label="x[26] <= 5.5\nentropy = 2.244\nsamples = 409\nvalue = [4, 30, 8, 130, 10, 88, 0, 8, 1, 130]"] ;
1 -> 2 ;
3 [label="x[29] <= 10.5\nentropy = 1.222\nsamples = 162\nvalue = [2, 6, 8, 122, 0, 0, 0, 1, 0, 23]"] ;
2 -> 3 ;
4 [label="x[19] <= 13.5\nentropy = 0.447\nsamples = 106\nvalue = [2, 6, 0, 98, 0, 0, 0, 0, 0, 0]"] ;
3 -> 4 ;
5 [label="x[36] <= 0.5\nentropy = 0.141\nsamples = 100\nvalue = [2, 0, 0, 98, 0, 0, 0, 0, 0, 0]"] ;
4 -> 5 ;
6 [label="entropy = 0.0\nsamples = 2\nvalue = [2, 0, 0, 0, 0, 0, 0, 0, 0, 0]"] ;
5 -> 6 ;
7 [label="entropy = 0.0\nsamples = 98\nvalue = [0, 0, 0, 98, 0, 0, 0, 0, 0, 0]"] ;
5 -> 7 ;
8 [label="entropy = 0.0\nsamples = 6\nvalue = [0, 6, 0, 0, 0, 0, 0, 0, 0, 0]"] ;
4 -> 8 ;
9 [label="x[27] <= 9.5\nentropy = 1.556\nsamples = 56\nvalue = [0, 0, 8, 24, 0, 0, 0, 1, 0, 23]"] ;
3 -> 9 ;
10 [label="x[62] <= 7.5\nentropy = 1.356\nsamples = 34\nvalue = [0, 0, 8, 22, 0, 0, 0, 1, 0, 3]"] ;
9 -> 10 ;
11 [label="x[30] <= 2.0\nentropy = 0.658\nsamples = 24\nvalue = [0, 0, 0, 21, 0, 0, 0, 1, 0, 2]"] ;
10 -> 11 ;
12 [label="entropy = 0.0\nsamples = 21\nvalue = [0, 0, 0, 21, 0, 0, 0, 0, 0, 0]"] ;
11 -> 12 ;
13 [label="entropy = 0.918\nsamples = 3\nvalue = [0, 0, 0, 0, 0, 0, 0, 1, 0, 2]"] ;
11 -> 13 ;
14 [label="x[44] <= 7.5\nentropy = 0.922\nsamples = 10\nvalue = [0, 0, 8, 1, 0, 0, 0, 0, 0, 1]"] ;
10 -> 14 ;
15 [label="entropy = 1.0\nsamples = 2\nvalue = [0, 0, 0, 1, 0, 0, 0, 0, 0, 1]"] ;
14 -> 15 ;
16 [label="entropy = 0.0\nsamples = 8\nvalue = [0, 0, 8, 0, 0, 0, 0, 0, 0, 0]"] ;
14 -> 16 ;
17 [label="x[19] <= 1.0\nentropy = 0.439\nsamples = 22\nvalue = [0, 0, 0, 2, 0, 0, 0, 0, 0, 20]"] ;
9 -> 17 ;
18 [label="entropy = 0.0\nsamples = 2\nvalue = [0, 0, 0, 2, 0, 0, 0, 0, 0, 0]"] ;
17 -> 18 ;
19 [label="entropy = 0.0\nsamples = 20\nvalue = [0, 0, 0, 0, 0, 0, 0, 0, 0, 20]"] ;
17 -> 19 ;
20 [label="x[21] <= 7.5\nentropy = 1.962\nsamples = 247\nvalue = [2, 24, 0, 8, 10, 88, 0, 7, 1, 107]"] ;
2 -> 20 ;
21 [label="x[22] <= 4.5\nentropy = 1.384\nsamples = 110\nvalue = [1, 5, 0, 5, 8, 84, 0, 3, 1, 3]"] ;
20 -> 21 ;
22 [label="x[5] <= 1.5\nentropy = 0.85\nsamples = 98\nvalue = [0, 5, 0, 5, 0, 84, 0, 0, 1, 3]"] ;
21 -> 22 ;
23 [label="x[62] <= 6.0\nentropy = 1.924\nsamples = 14\nvalue = [0, 5, 0, 4, 0, 2, 0, 0, 0, 3]"] ;
22 -> 23 ;
24 [label="entropy = 0.918\nsamples = 6\nvalue = [0, 0, 0, 4, 0, 2, 0, 0, 0, 0]"] ;
23 -> 24 ;
25 [label="entropy = 0.954\nsamples = 8\nvalue = [0, 5, 0, 0, 0, 0, 0, 0, 0, 3]"] ;
23 -> 25 ;
26 [label="x[20] <= 12.5\nentropy = 0.186\nsamples = 84\nvalue = [0, 0, 0, 1, 0, 82, 0, 0, 1, 0]"] ;
22 -> 26 ;
27 [label="entropy = 0.0\nsamples = 81\nvalue = [0, 0, 0, 0, 0, 81, 0, 0, 0, 0]"] ;
26 -> 27 ;
28 [label="entropy = 1.585\nsamples = 3\nvalue = [0, 0, 0, 1, 0, 1, 0, 0, 1, 0]"] ;
26 -> 28 ;
29 [label="x[28] <= 4.0\nentropy = 1.189\nsamples = 12\nvalue = [1, 0, 0, 0, 8, 0, 0, 3, 0, 0]"] ;
21 -> 29 ;
30 [label="x[17] <= 2.5\nentropy = 0.811\nsamples = 4\nvalue = [1, 0, 0, 0, 0, 0, 0, 3, 0, 0]"] ;
29 -> 30 ;
31 [label="entropy = 0.0\nsamples = 3\nvalue = [0, 0, 0, 0, 0, 0, 0, 3, 0, 0]"] ;
30 -> 31 ;
32 [label="entropy = 0.0\nsamples = 1\nvalue = [1, 0, 0, 0, 0, 0, 0, 0, 0, 0]"] ;
30 -> 32 ;
33 [label="entropy = 0.0\nsamples = 8\nvalue = [0, 0, 0, 0, 8, 0, 0, 0, 0, 0]"] ;
29 -> 33 ;
34 [label="x[44] <= 9.5\nentropy = 1.256\nsamples = 137\nvalue = [1, 19, 0, 3, 2, 4, 0, 4, 0, 104]"] ;
20 -> 34 ;
35 [label="x[33] <= 2.5\nentropy = 0.616\nsamples = 108\nvalue = [1, 2, 0, 3, 0, 4, 0, 0, 0, 98]"] ;
34 -> 35 ;
36 [label="x[29] <= 9.5\nentropy = 0.275\nsamples = 100\nvalue = [0, 0, 0, 3, 0, 1, 0, 0, 0, 96]"] ;
35 -> 36 ;
37 [label="entropy = 1.241\nsamples = 11\nvalue = [0, 0, 0, 3, 0, 1, 0, 0, 0, 7]"] ;
36 -> 37 ;
38 [label="entropy = 0.0\nsamples = 89\nvalue = [0, 0, 0, 0, 0, 0, 0, 0, 0, 89]"] ;
36 -> 38 ;
39 [label="x[36] <= 2.5\nentropy = 1.906\nsamples = 8\nvalue = [1, 2, 0, 0, 0, 3, 0, 0, 0, 2]"] ;
35 -> 39 ;
40 [label="entropy = 0.811\nsamples = 4\nvalue = [1, 0, 0, 0, 0, 3, 0, 0, 0, 0]"] ;
39 -> 40 ;
41 [label="entropy = 1.0\nsamples = 4\nvalue = [0, 2, 0, 0, 0, 0, 0, 0, 0, 2]"] ;
39 -> 41 ;
42 [label="x[61] <= 3.5\nentropy = 1.582\nsamples = 29\nvalue = [0, 17, 0, 0, 2, 0, 0, 4, 0, 6]"] ;
34 -> 42 ;
43 [label="x[27] <= 11.5\nentropy = 1.495\nsamples = 11\nvalue = [0, 0, 0, 0, 2, 0, 0, 4, 0, 5]"] ;
42 -> 43 ;
44 [label="entropy = 0.722\nsamples = 5\nvalue = [0, 0, 0, 0, 1, 0, 0, 4, 0, 0]"] ;
43 -> 44 ;
45 [label="entropy = 0.65\nsamples = 6\nvalue = [0, 0, 0, 0, 1, 0, 0, 0, 0, 5]"] ;
43 -> 45 ;
46 [label="x[6] <= 11.0\nentropy = 0.31\nsamples = 18\nvalue = [0, 17, 0, 0, 0, 0, 0, 0, 0, 1]"] ;
42 -> 46 ;
47 [label="entropy = 0.0\nsamples = 17\nvalue = [0, 17, 0, 0, 0, 0, 0, 0, 0, 0]"] ;
46 -> 47 ;
48 [label="entropy = 0.0\nsamples = 1\nvalue = [0, 0, 0, 0, 0, 0, 0, 0, 0, 1]"] ;
46 -> 48 ;
49 [label="x[61] <= 0.5\nentropy = 2.646\nsamples = 370\nvalue = [0, 68, 86, 5, 31, 48, 0, 92, 28, 12]"] ;
1 -> 49 ;
50 [label="x[29] <= 2.5\nentropy = 1.912\nsamples = 175\nvalue = [0, 8, 0, 2, 24, 40, 0, 92, 3, 6]"] ;
49 -> 50 ;
51 [label="x[20] <= 4.0\nentropy = 1.345\nsamples = 52\nvalue = [0, 5, 0, 2, 1, 39, 0, 2, 3, 0]"] ;
50 -> 51 ;
52 [label="entropy = 0.0\nsamples = 36\nvalue = [0, 0, 0, 0, 0, 36, 0, 0, 0, 0]"] ;
51 -> 52 ;
53 [label="x[11] <= 13.5\nentropy = 2.43\nsamples = 16\nvalue = [0, 5, 0, 2, 1, 3, 0, 2, 3, 0]"] ;
51 -> 53 ;
54 [label="x[6] <= 1.5\nentropy = 1.557\nsamples = 7\nvalue = [0, 0, 0, 2, 0, 0, 0, 2, 3, 0]"] ;
53 -> 54 ;
55 [label="entropy = 0.0\nsamples = 3\nvalue = [0, 0, 0, 0, 0, 0, 0, 0, 3, 0]"] ;
54 -> 55 ;
56 [label="entropy = 1.0\nsamples = 4\nvalue = [0, 0, 0, 2, 0, 0, 0, 2, 0, 0]"] ;
54 -> 56 ;
57 [label="x[60] <= 10.5\nentropy = 1.352\nsamples = 9\nvalue = [0, 5, 0, 0, 1, 3, 0, 0, 0, 0]"] ;
53 -> 57 ;
58 [label="entropy = 0.811\nsamples = 4\nvalue = [0, 0, 0, 0, 1, 3, 0, 0, 0, 0]"] ;
57 -> 58 ;
59 [label="entropy = 0.0\nsamples = 5\nvalue = [0, 5, 0, 0, 0, 0, 0, 0, 0, 0]"] ;
57 -> 59 ;
60 [label="x[26] <= 10.5\nentropy = 1.182\nsamples = 123\nvalue = [0, 3, 0, 0, 23, 1, 0, 90, 0, 6]"] ;
50 -> 60 ;
61 [label="x[60] <= 10.5\nentropy = 0.238\nsamples = 77\nvalue = [0, 3, 0, 0, 0, 0, 0, 74, 0, 0]"] ;
60 -> 61 ;
62 [label="entropy = 0.0\nsamples = 74\nvalue = [0, 0, 0, 0, 0, 0, 0, 74, 0, 0]"] ;
61 -> 62 ;
63 [label="entropy = 0.0\nsamples = 3\nvalue = [0, 3, 0, 0, 0, 0, 0, 0, 0, 0]"] ;
61 -> 63 ;
64 [label="x[13] <= 3.5\nentropy = 1.533\nsamples = 46\nvalue = [0, 0, 0, 0, 23, 1, 0, 16, 0, 6]"] ;
60 -> 64 ;
65 [label="entropy = 0.0\nsamples = 18\nvalue = [0, 0, 0, 0, 18, 0, 0, 0, 0, 0]"] ;
64 -> 65 ;
66 [label="x[17] <= 4.0\nentropy = 1.553\nsamples = 28\nvalue = [0, 0, 0, 0, 5, 1, 0, 16, 0, 6]"] ;
64 -> 66 ;
67 [label="entropy = 1.023\nsamples = 22\nvalue = [0, 0, 0, 0, 5, 0, 0, 16, 0, 1]"] ;
66 -> 67 ;
68 [label="entropy = 0.65\nsamples = 6\nvalue = [0, 0, 0, 0, 0, 1, 0, 0, 0, 5]"] ;
66 -> 68 ;
69 [label="x[10] <= 8.5\nentropy = 2.033\nsamples = 195\nvalue = [0, 60, 86, 3, 7, 8, 0, 0, 25, 6]"] ;
49 -> 69 ;
70 [label="x[51] <= 1.5\nentropy = 0.806\nsamples = 64\nvalue = [0, 54, 0, 0, 7, 1, 0, 0, 2, 0]"] ;
69 -> 70 ;
71 [label="x[13] <= 9.0\nentropy = 1.224\nsamples = 9\nvalue = [0, 2, 0, 0, 6, 1, 0, 0, 0, 0]"] ;
70 -> 71 ;
72 [label="entropy = 0.0\nsamples = 6\nvalue = [0, 0, 0, 0, 6, 0, 0, 0, 0, 0]"] ;
71 -> 72 ;
73 [label="x[17] <= 1.5\nentropy = 0.918\nsamples = 3\nvalue = [0, 2, 0, 0, 0, 1, 0, 0, 0, 0]"] ;
71 -> 73 ;
74 [label="entropy = 0.0\nsamples = 2\nvalue = [0, 2, 0, 0, 0, 0, 0, 0, 0, 0]"] ;
73 -> 74 ;
75 [label="entropy = 0.0\nsamples = 1\nvalue = [0, 0, 0, 0, 0, 1, 0, 0, 0, 0]"] ;
73 -> 75 ;
76 [label="x[27] <= 10.5\nentropy = 0.355\nsamples = 55\nvalue = [0, 52, 0, 0, 1, 0, 0, 0, 2, 0]"] ;
70 -> 76 ;
77 [label="x[35] <= 12.5\nentropy = 1.459\nsamples = 6\nvalue = [0, 3, 0, 0, 1, 0, 0, 0, 2, 0]"] ;
76 -> 77 ;
78 [label="entropy = 0.0\nsamples = 3\nvalue = [0, 3, 0, 0, 0, 0, 0, 0, 0, 0]"] ;
77 -> 78 ;
79 [label="entropy = 0.918\nsamples = 3\nvalue = [0, 0, 0, 0, 1, 0, 0, 0, 2, 0]"] ;
77 -> 79 ;
80 [label="entropy = 0.0\nsamples = 49\nvalue = [0, 49, 0, 0, 0, 0, 0, 0, 0, 0]"] ;
76 -> 80 ;
81 [label="x[45] <= 6.5\nentropy = 1.597\nsamples = 131\nvalue = [0, 6, 86, 3, 0, 7, 0, 0, 23, 6]"] ;
69 -> 81 ;
82 [label="x[12] <= 5.0\nentropy = 0.73\nsamples = 92\nvalue = [0, 6, 81, 0, 0, 2, 0, 0, 2, 1]"] ;
81 -> 82 ;
83 [label="x[42] <= 0.5\nentropy = 1.371\nsamples = 10\nvalue = [0, 6, 2, 0, 0, 0, 0, 0, 2, 0]"] ;
82 -> 83 ;
84 [label="entropy = 0.0\nsamples = 6\nvalue = [0, 6, 0, 0, 0, 0, 0, 0, 0, 0]"] ;
83 -> 84 ;
85 [label="entropy = 1.0\nsamples = 4\nvalue = [0, 0, 2, 0, 0, 0, 0, 0, 2, 0]"] ;
83 -> 85 ;
86 [label="x[20] <= 2.5\nentropy = 0.26\nsamples = 82\nvalue = [0, 0, 79, 0, 0, 2, 0, 0, 0, 1]"] ;
82 -> 86 ;
87 [label="entropy = 0.918\nsamples = 3\nvalue = [0, 0, 0, 0, 0, 2, 0, 0, 0, 1]"] ;
86 -> 87 ;
88 [label="entropy = 0.0\nsamples = 79\nvalue = [0, 0, 79, 0, 0, 0, 0, 0, 0, 0]"] ;
86 -> 88 ;
89 [label="x[26] <= 3.0\nentropy = 1.905\nsamples = 39\nvalue = [0, 0, 5, 3, 0, 5, 0, 0, 21, 5]"] ;
81 -> 89 ;
90 [label="x[37] <= 9.0\nentropy = 0.954\nsamples = 8\nvalue = [0, 0, 5, 3, 0, 0, 0, 0, 0, 0]"] ;
89 -> 90 ;
91 [label="entropy = 0.0\nsamples = 5\nvalue = [0, 0, 5, 0, 0, 0, 0, 0, 0, 0]"] ;
90 -> 91 ;
92 [label="entropy = 0.0\nsamples = 3\nvalue = [0, 0, 0, 3, 0, 0, 0, 0, 0, 0]"] ;
90 -> 92 ;
93 [label="x[43] <= 8.5\nentropy = 1.23\nsamples = 31\nvalue = [0, 0, 0, 0, 0, 5, 0, 0, 21, 5]"] ;
89 -> 93 ;
94 [label="entropy = 1.483\nsamples = 12\nvalue = [0, 0, 0, 0, 0, 5, 0, 0, 2, 5]"] ;
93 -> 94 ;
95 [label="entropy = 0.0\nsamples = 19\nvalue = [0, 0, 0, 0, 0, 0, 0, 0, 19, 0]"] ;
93 -> 95 ;
96 [label="x[38] <= 0.5\nentropy = 2.813\nsamples = 658\nvalue = [139, 48, 48, 11, 103, 9, 144, 43, 112, 1]"] ;
0 -> 96 [labeldistance=2.5, labelangle=-45, headlabel="False"] ;
97 [label="x[28] <= 5.5\nentropy = 2.237\nsamples = 270\nvalue = [4, 48, 48, 0, 6, 8, 45, 1, 110, 0]"] ;
96 -> 97 ;
98 [label="x[61] <= 9.5\nentropy = 1.606\nsamples = 64\nvalue = [4, 0, 4, 0, 3, 6, 44, 0, 3, 0]"] ;
97 -> 98 ;
99 [label="x[21] <= 2.0\nentropy = 2.224\nsamples = 18\nvalue = [4, 0, 0, 0, 3, 6, 2, 0, 3, 0]"] ;
98 -> 99 ;
100 [label="x[10] <= 11.0\nentropy = 1.295\nsamples = 10\nvalue = [0, 0, 0, 0, 3, 6, 1, 0, 0, 0]"] ;
99 -> 100 ;
101 [label="x[27] <= 5.5\nentropy = 0.811\nsamples = 4\nvalue = [0, 0, 0, 0, 3, 0, 1, 0, 0, 0]"] ;
100 -> 101 ;
102 [label="entropy = 0.0\nsamples = 3\nvalue = [0, 0, 0, 0, 3, 0, 0, 0, 0, 0]"] ;
101 -> 102 ;
103 [label="entropy = 0.0\nsamples = 1\nvalue = [0, 0, 0, 0, 0, 0, 1, 0, 0, 0]"] ;
101 -> 103 ;
104 [label="entropy = 0.0\nsamples = 6\nvalue = [0, 0, 0, 0, 0, 6, 0, 0, 0, 0]"] ;
100 -> 104 ;
105 [label="x[27] <= 5.0\nentropy = 1.406\nsamples = 8\nvalue = [4, 0, 0, 0, 0, 0, 1, 0, 3, 0]"] ;
99 -> 105 ;
106 [label="entropy = 0.0\nsamples = 4\nvalue = [4, 0, 0, 0, 0, 0, 0, 0, 0, 0]"] ;
105 -> 106 ;
107 [label="x[2] <= 2.0\nentropy = 0.811\nsamples = 4\nvalue = [0, 0, 0, 0, 0, 0, 1, 0, 3, 0]"] ;
105 -> 107 ;
108 [label="entropy = 0.0\nsamples = 1\nvalue = [0, 0, 0, 0, 0, 0, 1, 0, 0, 0]"] ;
107 -> 108 ;
109 [label="entropy = 0.0\nsamples = 3\nvalue = [0, 0, 0, 0, 0, 0, 0, 0, 3, 0]"] ;
107 -> 109 ;
110 [label="x[45] <= 2.5\nentropy = 0.426\nsamples = 46\nvalue = [0, 0, 4, 0, 0, 0, 42, 0, 0, 0]"] ;
98 -> 110 ;
111 [label="entropy = 0.0\nsamples = 4\nvalue = [0, 0, 4, 0, 0, 0, 0, 0, 0, 0]"] ;
110 -> 111 ;
112 [label="entropy = 0.0\nsamples = 42\nvalue = [0, 0, 0, 0, 0, 0, 42, 0, 0, 0]"] ;
110 -> 112 ;
113 [label="x[51] <= 14.5\nentropy = 1.685\nsamples = 206\nvalue = [0, 48, 44, 0, 3, 2, 1, 1, 107, 0]"] ;
97 -> 113 ;
114 [label="x[44] <= 2.5\nentropy = 1.261\nsamples = 149\nvalue = [0, 5, 33, 0, 3, 1, 1, 1, 105, 0]"] ;
113 -> 114 ;
115 [label="x[45] <= 7.5\nentropy = 0.811\nsamples = 36\nvalue = [0, 0, 27, 0, 0, 0, 0, 0, 9, 0]"] ;
114 -> 115 ;
116 [label="entropy = 0.0\nsamples = 27\nvalue = [0, 0, 27, 0, 0, 0, 0, 0, 0, 0]"] ;
115 -> 116 ;
117 [label="entropy = 0.0\nsamples = 9\nvalue = [0, 0, 0, 0, 0, 0, 0, 0, 9, 0]"] ;
115 -> 117 ;
118 [label="x[3] <= 1.5\nentropy = 0.944\nsamples = 113\nvalue = [0, 5, 6, 0, 3, 1, 1, 1, 96, 0]"] ;
114 -> 118 ;
119 [label="x[28] <= 15.0\nentropy = 0.954\nsamples = 8\nvalue = [0, 5, 3, 0, 0, 0, 0, 0, 0, 0]"] ;
118 -> 119 ;
120 [label="entropy = 0.0\nsamples = 3\nvalue = [0, 0, 3, 0, 0, 0, 0, 0, 0, 0]"] ;
119 -> 120 ;
121 [label="entropy = 0.0\nsamples = 5\nvalue = [0, 5, 0, 0, 0, 0, 0, 0, 0, 0]"] ;
119 -> 121 ;
122 [label="x[21] <= 4.0\nentropy = 0.603\nsamples = 105\nvalue = [0, 0, 3, 0, 3, 1, 1, 1, 96, 0]"] ;
118 -> 122 ;
123 [label="entropy = 1.522\nsamples = 5\nvalue = [0, 0, 2, 0, 2, 0, 1, 0, 0, 0]"] ;
122 -> 123 ;
124 [label="entropy = 0.322\nsamples = 100\nvalue = [0, 0, 1, 0, 1, 1, 0, 1, 96, 0]"] ;
122 -> 124 ;
125 [label="x[27] <= 12.5\nentropy = 1.037\nsamples = 57\nvalue = [0, 43, 11, 0, 0, 1, 0, 0, 2, 0]"] ;
113 -> 125 ;
126 [label="x[26] <= 11.0\nentropy = 0.469\nsamples = 10\nvalue = [0, 0, 9, 0, 0, 1, 0, 0, 0, 0]"] ;
125 -> 126 ;
127 [label="entropy = 0.0\nsamples = 9\nvalue = [0, 0, 9, 0, 0, 0, 0, 0, 0, 0]"] ;
126 -> 127 ;
128 [label="entropy = 0.0\nsamples = 1\nvalue = [0, 0, 0, 0, 0, 1, 0, 0, 0, 0]"] ;
126 -> 128 ;
129 [label="x[12] <= 13.0\nentropy = 0.505\nsamples = 47\nvalue = [0, 43, 2, 0, 0, 0, 0, 0, 2, 0]"] ;
125 -> 129 ;
130 [label="x[19] <= 15.0\nentropy = 1.0\nsamples = 4\nvalue = [0, 0, 2, 0, 0, 0, 0, 0, 2, 0]"] ;
129 -> 130 ;
131 [label="entropy = 0.0\nsamples = 2\nvalue = [0, 0, 0, 0, 0, 0, 0, 0, 2, 0]"] ;
130 -> 131 ;
132 [label="entropy = 0.0\nsamples = 2\nvalue = [0, 0, 2, 0, 0, 0, 0, 0, 0, 0]"] ;
130 -> 132 ;
133 [label="entropy = 0.0\nsamples = 43\nvalue = [0, 43, 0, 0, 0, 0, 0, 0, 0, 0]"] ;
129 -> 133 ;
134 [label="x[36] <= 1.5\nentropy = 2.109\nsamples = 388\nvalue = [135, 0, 0, 11, 97, 1, 99, 42, 2, 1]"] ;
96 -> 134 ;
135 [label="x[3] <= 4.5\nentropy = 0.508\nsamples = 146\nvalue = [134, 0, 0, 0, 8, 0, 3, 0, 0, 1]"] ;
134 -> 135 ;
136 [label="entropy = 0.0\nsamples = 8\nvalue = [0, 0, 0, 0, 8, 0, 0, 0, 0, 0]"] ;
135 -> 136 ;
137 [label="x[28] <= 8.0\nentropy = 0.213\nsamples = 138\nvalue = [134, 0, 0, 0, 0, 0, 3, 0, 0, 1]"] ;
135 -> 137 ;
138 [label="entropy = 0.0\nsamples = 134\nvalue = [134, 0, 0, 0, 0, 0, 0, 0, 0, 0]"] ;
137 -> 138 ;
139 [label="x[58] <= 4.5\nentropy = 0.811\nsamples = 4\nvalue = [0, 0, 0, 0, 0, 0, 3, 0, 0, 1]"] ;
137 -> 139 ;
140 [label="entropy = 0.0\nsamples = 3\nvalue = [0, 0, 0, 0, 0, 0, 3, 0, 0, 0]"] ;
139 -> 140 ;
141 [label="entropy = 0.0\nsamples = 1\nvalue = [0, 0, 0, 0, 0, 0, 0, 0, 0, 1]"] ;
139 -> 141 ;
142 [label="x[54] <= 1.5\nentropy = 1.824\nsamples = 242\nvalue = [1, 0, 0, 11, 89, 1, 96, 42, 2, 0]"] ;
134 -> 142 ;
143 [label="x[26] <= 10.5\nentropy = 1.075\nsamples = 134\nvalue = [1, 0, 0, 1, 89, 1, 0, 42, 0, 0]"] ;
142 -> 143 ;
144 [label="x[19] <= 12.0\nentropy = 0.566\nsamples = 47\nvalue = [0, 0, 0, 1, 4, 0, 0, 42, 0, 0]"] ;
143 -> 144 ;
145 [label="x[49] <= 3.0\nentropy = 0.159\nsamples = 43\nvalue = [0, 0, 0, 1, 0, 0, 0, 42, 0, 0]"] ;
144 -> 145 ;
146 [label="entropy = 0.0\nsamples = 42\nvalue = [0, 0, 0, 0, 0, 0, 0, 42, 0, 0]"] ;
145 -> 146 ;
147 [label="entropy = 0.0\nsamples = 1\nvalue = [0, 0, 0, 1, 0, 0, 0, 0, 0, 0]"] ;
145 -> 147 ;
148 [label="entropy = 0.0\nsamples = 4\nvalue = [0, 0, 0, 0, 4, 0, 0, 0, 0, 0]"] ;
144 -> 148 ;
149 [label="x[44] <= 10.5\nentropy = 0.181\nsamples = 87\nvalue = [1, 0, 0, 0, 85, 1, 0, 0, 0, 0]"] ;
143 -> 149 ;
150 [label="x[11] <= 14.5\nentropy = 1.5\nsamples = 4\nvalue = [1, 0, 0, 0, 2, 1, 0, 0, 0, 0]"] ;
149 -> 150 ;
151 [label="entropy = 0.0\nsamples = 2\nvalue = [0, 0, 0, 0, 2, 0, 0, 0, 0, 0]"] ;
150 -> 151 ;
152 [label="entropy = 1.0\nsamples = 2\nvalue = [1, 0, 0, 0, 0, 1, 0, 0, 0, 0]"] ;
150 -> 152 ;
153 [label="entropy = 0.0\nsamples = 83\nvalue = [0, 0, 0, 0, 83, 0, 0, 0, 0, 0]"] ;
149 -> 153 ;
154 [label="x[21] <= 1.0\nentropy = 0.575\nsamples = 108\nvalue = [0, 0, 0, 10, 0, 0, 96, 0, 2, 0]"] ;
142 -> 154 ;
155 [label="x[10] <= 15.5\nentropy = 0.084\nsamples = 96\nvalue = [0, 0, 0, 1, 0, 0, 95, 0, 0, 0]"] ;
154 -> 155 ;
156 [label="entropy = 0.0\nsamples = 95\nvalue = [0, 0, 0, 0, 0, 0, 95, 0, 0, 0]"] ;
155 -> 156 ;
157 [label="entropy = 0.0\nsamples = 1\nvalue = [0, 0, 0, 1, 0, 0, 0, 0, 0, 0]"] ;
155 -> 157 ;
158 [label="x[26] <= 4.5\nentropy = 1.041\nsamples = 12\nvalue = [0, 0, 0, 9, 0, 0, 1, 0, 2, 0]"] ;
154 -> 158 ;
159 [label="entropy = 0.0\nsamples = 9\nvalue = [0, 0, 0, 9, 0, 0, 0, 0, 0, 0]"] ;
158 -> 159 ;
160 [label="x[54] <= 2.5\nentropy = 0.918\nsamples = 3\nvalue = [0, 0, 0, 0, 0, 0, 1, 0, 2, 0]"] ;
158 -> 160 ;
161 [label="entropy = 0.0\nsamples = 1\nvalue = [0, 0, 0, 0, 0, 0, 1, 0, 0, 0]"] ;
160 -> 161 ;
162 [label="entropy = 0.0\nsamples = 2\nvalue = [0, 0, 0, 0, 0, 0, 0, 0, 2, 0]"] ;
160 -> 162 ;
}